<?xml version="1.0"?>
<opencv_storage>
<cascade>
  <stageType>BOOST</stageType>
  <featureType>HAAR</featureType>
  <height>32</height>
  <width>32</width>
  <stageParams>
    <boostType>GAB</boostType>
    <minHitRate>9.9500000476837158e-01</minHitRate>
    <maxFalseAlarm>5.0000000000000000e-01</maxFalseAlarm>
    <weightTrimRate>9.4999998807907104e-01</weightTrimRate>
    <maxDepth>1</maxDepth>
    <maxWeakCount>100</maxWeakCount></stageParams>
  <featureParams>
    <maxCatCount>0</maxCatCount>
    <featSize>1</featSize>
    <mode>BASIC</mode></featureParams>
  <stageNum>20</stageNum>
  <stages>
    <!-- stage 0 -->
    <_>
      <maxWeakCount>5</maxWeakCount>
      <stageThreshold>-1.9784710407257080e+00</stageThreshold>
      <weakClassifiers>
        <_>
          <internalNodes>
            0 -1 105 -5.5699641816318035e-03</internalNodes>
          <leafValues>
            3.7500000000000000e-01 -7.9918587207794189e-01</leafValues></_>
        <_>
          <internalNodes>
            0 -1 10 -4.9605598906055093e-04</internalNodes>
          <leafValues>
            -9.5291811227798462e-01 1.0892651230096817e-01</leafValues></_>
        <_>
          <internalNodes>
            0 -1 157 5.0162878324044868e-05</internalNodes>
          <leafValues>
            2.3861184716224670e-01 -8.9586317539215088e-01</leafValues></_>
        <_>
          <internalNodes>
            0 -1 20 -8.3025550702586770e-04</internalNodes>
          <leafValues>
            -7.7947878837585449e-01 3.2275074720382690e-01</leafValues></_>
        <_>
          <internalNodes>
            0 -1 183 -5.5343596613965929e-05</internalNodes>
          <leafValues>
            -7.8705561161041260e-01 3.0081930756568909e-01</leafValues></_></weakClassifiers></_>
    <!-- stage 1 -->
    <_>
      <maxWeakCount>7</maxWeakCount>
      <stageThreshold>-1.6555861234664917e+00</stageThreshold>
      <weakClassifiers>
        <_>
          <internalNodes>
            0 -1 157 -6.1256450862856582e-06</internalNodes>
          <leafValues>
            -8.9948004484176636e-01 -1.0294117778539658e-01</leafValues></_>
        <_>
          <internalNodes>
            0 -1 180 -3.2154115615412593e-04</internalNodes>
          <leafValues>
            -9.0840524435043335e-01 7.9137831926345825e-02</leafValues></_>
        <_>
          <internalNodes>
            0 -1 13 -3.7839941796846688e-05</internalNodes>
          <leafValues>
            -8.1622481346130371e-01 2.3137508332729340e-01</leafValues></_>
        <_>
          <internalNodes>
            0 -1 178 2.0459694787859917e-03</internalNodes>
          <leafValues>
            3.6399772763252258e-01 -7.3933213949203491e-01</leafValues></_>
        <_>
          <internalNodes>
            0 -1 109 2.1381634287536144e-03</internalNodes>
          <leafValues>
            -6.2909477949142456e-01 3.8696798682212830e-01</leafValues></_>
        <_>
          <internalNodes>
            0 -1 167 7.9937199188861996e-06</internalNodes>
          <leafValues>
            3.0830794572830200e-01 -8.2457679510116577e-01</leafValues></_>
        <_>
          <internalNodes>
            0 -1 154 -1.6528586274944246e-04</internalNodes>
          <leafValues>
            -8.2328152656555176e-01 2.4559618532657623e-01</leafValues></_></weakClassifiers></_>
    <!-- stage 2 -->
    <_>
      <maxWeakCount>6</maxWeakCount>
      <stageThreshold>-1.6379345655441284e+00</stageThreshold>
      <weakClassifiers>
        <_>
          <internalNodes>
            0 -1 115 -7.0270984433591366e-03</internalNodes>
          <leafValues>
            3.4000000357627869e-01 -7.7570092678070068e-01</leafValues></_>
        <_>
          <internalNodes>
            0 -1 185 4.9267058784607798e-05</internalNodes>
          <leafValues>
            1.2528997659683228e-01 -9.0157300233840942e-01</leafValues></_>
        <_>
          <internalNodes>
            0 -1 44 -1.3004223001189530e-04</internalNodes>
          <leafValues>
            -8.6605423688888550e-01 2.4411296844482422e-01</leafValues></_>
        <_>
          <internalNodes>
            0 -1 44 3.9149727672338486e-04</internalNodes>
          <leafValues>
            3.0092382431030273e-01 -7.8101009130477905e-01</leafValues></_>
        <_>
          <internalNodes>
            0 -1 173 -2.0717078587040305e-04</internalNodes>
          <leafValues>
            -7.7815771102905273e-01 2.4903786182403564e-01</leafValues></_>
        <_>
          <internalNodes>
            0 -1 162 -6.0837965065729804e-06</internalNodes>
          <leafValues>
            -6.3927549123764038e-01 3.2753121852874756e-01</leafValues></_></weakClassifiers></_>
    <!-- stage 3 -->
    <_>
      <maxWeakCount>7</maxWeakCount>
      <stageThreshold>-1.5644521713256836e+00</stageThreshold>
      <weakClassifiers>
        <_>
          <internalNodes>
            0 -1 125 2.7950617950409651e-03</internalNodes>
          <leafValues>
            -8.6599665880203247e-01 -1.1904761940240860e-01</leafValues></_>
        <_>
          <internalNodes>
            0 -1 64 -1.5498106367886066e-03</internalNodes>
          <leafValues>
            2.3381669819355011e-01 -6.7239761352539063e-01</leafValues></_>
        <_>
          <internalNodes>
            0 -1 68 3.8357509765774012e-03</internalNodes>
          <leafValues>
            -5.9622824192047119e-01 2.4181242287158966e-01</leafValues></_>
        <_>
          <internalNodes>
            0 -1 71 -3.1052433769218624e-05</internalNodes>
          <leafValues>
            -8.7650233507156372e-01 1.7890654504299164e-01</leafValues></_>
        <_>
          <internalNodes>
            0 -1 9 -2.6470762677490711e-03</internalNodes>
          <leafValues>
            -9.3965476751327515e-01 1.4423799514770508e-01</leafValues></_>
        <_>
          <internalNodes>
            0 -1 62 1.4215229311957955e-03</internalNodes>
          <leafValues>
            -3.6167147755622864e-01 4.1148573160171509e-01</leafValues></_>
        <_>
          <internalNodes>
            0 -1 182 8.4552087355405092e-04</internalNodes>
          <leafValues>
            1.4399991929531097e-01 -9.3586522340774536e-01</leafValues></_></weakClassifiers></_>
    <!-- stage 4 -->
    <_>
      <maxWeakCount>7</maxWeakCount>
      <stageThreshold>-1.5998809337615967e+00</stageThreshold>
      <weakClassifiers>
        <_>
          <internalNodes>
            0 -1 73 -3.8405340909957886e-01</internalNodes>
          <leafValues>
            9.3939393758773804e-01 -7.0833331346511841e-01</leafValues></_>
        <_>
          <internalNodes>
            0 -1 134 1.8647513352334499e-03</internalNodes>
          <leafValues>
            -5.0180101394653320e-01 4.3116274476051331e-01</leafValues></_>
        <_>
          <internalNodes>
            0 -1 119 -6.2159320805221796e-04</internalNodes>
          <leafValues>
            -8.3549201488494873e-01 2.0528113842010498e-01</leafValues></_>
        <_>
          <internalNodes>
            0 -1 112 2.8739118715748191e-04</internalNodes>
          <leafValues>
            -4.3845272064208984e-01 3.7626177072525024e-01</leafValues></_>
        <_>
          <internalNodes>
            0 -1 139 3.7959073670208454e-03</internalNodes>
          <leafValues>
            -4.2756101489067078e-01 3.5239857435226440e-01</leafValues></_>
        <_>
          <internalNodes>
            0 -1 98 3.4263706766068935e-04</internalNodes>
          <leafValues>
            2.5616276264190674e-01 -6.6827070713043213e-01</leafValues></_>
        <_>
          <internalNodes>
            0 -1 4 -1.3798882719129324e-03</internalNodes>
          <leafValues>
            -8.8178908824920654e-01 1.5929713845252991e-01</leafValues></_></weakClassifiers></_>
    <!-- stage 5 -->
    <_>
      <maxWeakCount>9</maxWeakCount>
      <stageThreshold>-1.3666141033172607e+00</stageThreshold>
      <weakClassifiers>
        <_>
          <internalNodes>
            0 -1 101 -2.2159641981124878e-01</internalNodes>
          <leafValues>
            8.7878787517547607e-01 -7.0588237047195435e-01</leafValues></_>
        <_>
          <internalNodes>
            0 -1 136 -7.3617072775959969e-03</internalNodes>
          <leafValues>
            1.9975751638412476e-01 -6.2585014104843140e-01</leafValues></_>
        <_>
          <internalNodes>
            0 -1 146 5.6453356519341469e-03</internalNodes>
          <leafValues>
            -4.1804531216621399e-01 3.4555864334106445e-01</leafValues></_>
        <_>
          <internalNodes>
            0 -1 169 -6.6320144469500519e-06</internalNodes>
          <leafValues>
            -6.0445874929428101e-01 2.2404867410659790e-01</leafValues></_>
        <_>
          <internalNodes>
            0 -1 153 3.2247466151602566e-05</internalNodes>
          <leafValues>
            2.2258253395557404e-01 -5.9364128112792969e-01</leafValues></_>
        <_>
          <internalNodes>
            0 -1 179 5.0306217744946480e-03</internalNodes>
          <leafValues>
            1.8150800466537476e-01 -8.3683955669403076e-01</leafValues></_>
        <_>
          <internalNodes>
            0 -1 85 3.9956038817763329e-03</internalNodes>
          <leafValues>
            -4.1216370463371277e-01 3.6729755997657776e-01</leafValues></_>
        <_>
          <internalNodes>
            0 -1 151 -2.3215536028146744e-02</internalNodes>
          <leafValues>
            -7.5088453292846680e-01 1.9436544179916382e-01</leafValues></_>
        <_>
          <internalNodes>
            0 -1 37 -4.6945388021413237e-06</internalNodes>
          <leafValues>
            -6.2499248981475830e-01 2.0393240451812744e-01</leafValues></_></weakClassifiers></_>
    <!-- stage 6 -->
    <_>
      <maxWeakCount>9</maxWeakCount>
      <stageThreshold>-1.9932271242141724e+00</stageThreshold>
      <weakClassifiers>
        <_>
          <internalNodes>
            0 -1 54 -1.5819241106510162e-01</internalNodes>
          <leafValues>
            8.7500000000000000e-01 -7.0379436016082764e-01</leafValues></_>
        <_>
          <internalNodes>
            0 -1 181 -3.4195306943729520e-04</internalNodes>
          <leafValues>
            -8.1071245670318604e-01 8.0409497022628784e-02</leafValues></_>
        <_>
          <internalNodes>
            0 -1 106 6.3075486104935408e-04</internalNodes>
          <leafValues>
            -3.8939028978347778e-01 4.0282952785491943e-01</leafValues></_>
        <_>
          <internalNodes>
            0 -1 3 1.2740741949528456e-03</internalNodes>
          <leafValues>
            1.6835521161556244e-01 -9.3456923961639404e-01</leafValues></_>
        <_>
          <internalNodes>
            0 -1 43 2.3622992448508739e-03</internalNodes>
          <leafValues>
            1.7892147600650787e-01 -7.6980721950531006e-01</leafValues></_>
        <_>
          <internalNodes>
            0 -1 142 6.0252379626035690e-04</internalNodes>
          <leafValues>
            -4.1266432404518127e-01 2.9853725433349609e-01</leafValues></_>
        <_>
          <internalNodes>
            0 -1 177 1.7721587209962308e-04</internalNodes>
          <leafValues>
            1.6648800671100616e-01 -8.2415956258773804e-01</leafValues></_>
        <_>
          <internalNodes>
            0 -1 65 1.2924483045935631e-02</internalNodes>
          <leafValues>
            -3.3680865168571472e-01 4.0032899379730225e-01</leafValues></_>
        <_>
          <internalNodes>
            0 -1 53 1.6772953676991165e-04</internalNodes>
          <leafValues>
            1.4637820422649384e-01 -8.8706594705581665e-01</leafValues></_></weakClassifiers></_>
    <!-- stage 7 -->
    <_>
      <maxWeakCount>10</maxWeakCount>
      <stageThreshold>-1.5422941446304321e+00</stageThreshold>
      <weakClassifiers>
        <_>
          <internalNodes>
            0 -1 82 -1.2715521454811096e-01</internalNodes>
          <leafValues>
            9.2307692766189575e-01 -6.9380313158035278e-01</leafValues></_>
        <_>
          <internalNodes>
            0 -1 131 1.4323599170893431e-03</internalNodes>
          <leafValues>
            -5.2648252248764038e-01 1.6697126626968384e-01</leafValues></_>
        <_>
          <internalNodes>
            0 -1 179 -5.0669035408645868e-04</internalNodes>
          <leafValues>
            -7.0376855134963989e-01 1.7165036499500275e-01</leafValues></_>
        <_>
          <internalNodes>
            0 -1 90 3.1180782243609428e-03</internalNodes>
          <leafValues>
            1.3437174260616302e-01 -8.3590036630630493e-01</leafValues></_>
        <_>
          <internalNodes>
            0 -1 79 -2.4260126519948244e-03</internalNodes>
          <leafValues>
            -8.2995033264160156e-01 1.2917010486125946e-01</leafValues></_>
        <_>
          <internalNodes>
            0 -1 32 -2.2755268216133118e-01</internalNodes>
          <leafValues>
            -9.5854556560516357e-01 6.3450455665588379e-02</leafValues></_>
        <_>
          <internalNodes>
            0 -1 103 1.1645462363958359e-03</internalNodes>
          <leafValues>
            -3.1410974264144897e-01 3.5404816269874573e-01</leafValues></_>
        <_>
          <internalNodes>
            0 -1 133 1.5559484018012881e-04</internalNodes>
          <leafValues>
            -2.4981574714183807e-01 4.5608571171760559e-01</leafValues></_>
        <_>
          <internalNodes>
            0 -1 123 2.5772068649530411e-02</internalNodes>
          <leafValues>
            1.3101509213447571e-01 -8.9051604270935059e-01</leafValues></_>
        <_>
          <internalNodes>
            0 -1 143 2.4462067522108555e-03</internalNodes>
          <leafValues>
            8.5186943411827087e-02 -8.6447912454605103e-01</leafValues></_></weakClassifiers></_>
    <!-- stage 8 -->
    <_>
      <maxWeakCount>11</maxWeakCount>
      <stageThreshold>-1.5813567638397217e+00</stageThreshold>
      <weakClassifiers>
        <_>
          <internalNodes>
            0 -1 94 -3.8129866123199463e-01</internalNodes>
          <leafValues>
            8.6666667461395264e-01 -6.9963371753692627e-01</leafValues></_>
        <_>
          <internalNodes>
            0 -1 5 -3.8206158205866814e-03</internalNodes>
          <leafValues>
            2.3690104484558105e-01 -4.6049284934997559e-01</leafValues></_>
        <_>
          <internalNodes>
            0 -1 1 3.8915539334993809e-05</internalNodes>
          <leafValues>
            1.6303591430187225e-01 -7.7431005239486694e-01</leafValues></_>
        <_>
          <internalNodes>
            0 -1 18 4.9229459837079048e-03</internalNodes>
          <leafValues>
            1.2688304483890533e-01 -1.</leafValues></_>
        <_>
          <internalNodes>
            0 -1 161 -5.7658421610540245e-06</internalNodes>
          <leafValues>
            -6.0527205467224121e-01 1.2813003361225128e-01</leafValues></_>
        <_>
          <internalNodes>
            0 -1 56 2.3136459290981293e-01</internalNodes>
          <leafValues>
            9.8866462707519531e-02 -1.</leafValues></_>
        <_>
          <internalNodes>
            0 -1 128 2.2229032765608281e-04</internalNodes>
          <leafValues>
            -5.1463043689727783e-01 1.9524522125720978e-01</leafValues></_>
        <_>
          <internalNodes>
            0 -1 108 1.0199586395174265e-03</internalNodes>
          <leafValues>
            -4.0116021037101746e-01 2.6110348105430603e-01</leafValues></_>
        <_>
          <internalNodes>
            0 -1 27 -2.4825232103466988e-03</internalNodes>
          <leafValues>
            -7.4996984004974365e-01 1.4525918662548065e-01</leafValues></_>
        <_>
          <internalNodes>
            0 -1 104 9.6833729185163975e-04</internalNodes>
          <leafValues>
            -3.2044029235839844e-01 3.6059188842773438e-01</leafValues></_>
        <_>
          <internalNodes>
            0 -1 171 2.3451444576494396e-04</internalNodes>
          <leafValues>
            1.8883419036865234e-01 -7.0645266771316528e-01</leafValues></_></weakClassifiers></_>
    <!-- stage 9 -->
    <_>
      <maxWeakCount>9</maxWeakCount>
      <stageThreshold>-1.4038968086242676e+00</stageThreshold>
      <weakClassifiers>
        <_>
          <internalNodes>
            0 -1 61 -2.1457353234291077e-01</internalNodes>
          <leafValues>
            7.5000000000000000e-01 -6.9889843463897705e-01</leafValues></_>
        <_>
          <internalNodes>
            0 -1 117 6.9999322295188904e-04</internalNodes>
          <leafValues>
            -5.1980876922607422e-01 1.6947104036808014e-01</leafValues></_>
        <_>
          <internalNodes>
            0 -1 58 4.5612500980496407e-03</internalNodes>
          <leafValues>
            1.4373952150344849e-01 -8.2451385259628296e-01</leafValues></_>
        <_>
          <internalNodes>
            0 -1 138 7.9718017950654030e-03</internalNodes>
          <leafValues>
            -4.2662903666496277e-01 2.4295499920845032e-01</leafValues></_>
        <_>
          <internalNodes>
            0 -1 114 7.9939156770706177e-02</internalNodes>
          <leafValues>
            1.6822202503681183e-01 -7.1737283468246460e-01</leafValues></_>
        <_>
          <internalNodes>
            0 -1 35 4.1922321543097496e-04</internalNodes>
          <leafValues>
            -3.7200418114662170e-01 2.3773193359375000e-01</leafValues></_>
        <_>
          <internalNodes>
            0 -1 17 -8.8431760668754578e-03</internalNodes>
          <leafValues>
            3.8657990097999573e-01 -2.8643220663070679e-01</leafValues></_>
        <_>
          <internalNodes>
            0 -1 15 2.1955496631562710e-03</internalNodes>
          <leafValues>
            1.4729072153568268e-01 -8.8637816905975342e-01</leafValues></_>
        <_>
          <internalNodes>
            0 -1 84 -6.3214515648724046e-06</internalNodes>
          <leafValues>
            -4.9773561954498291e-01 1.6685351729393005e-01</leafValues></_></weakClassifiers></_>
    <!-- stage 10 -->
    <_>
      <maxWeakCount>9</maxWeakCount>
      <stageThreshold>-1.0936949253082275e+00</stageThreshold>
      <weakClassifiers>
        <_>
          <internalNodes>
            0 -1 46 -2.4730002880096436e-01</internalNodes>
          <leafValues>
            7.4193549156188965e-01 -6.9682151079177856e-01</leafValues></_>
        <_>
          <internalNodes>
            0 -1 121 -4.3810759671032429e-03</internalNodes>
          <leafValues>
            1.6651391983032227e-01 -5.4291677474975586e-01</leafValues></_>
        <_>
          <internalNodes>
            0 -1 21 1.5670338179916143e-03</internalNodes>
          <leafValues>
            1.4415812492370605e-01 -8.6419749259948730e-01</leafValues></_>
        <_>
          <internalNodes>
            0 -1 89 -6.8958019837737083e-03</internalNodes>
          <leafValues>
            4.5922452211380005e-01 -2.5742220878601074e-01</leafValues></_>
        <_>
          <internalNodes>
            0 -1 59 3.7094667553901672e-02</internalNodes>
          <leafValues>
            -2.1963334083557129e-01 4.7520256042480469e-01</leafValues></_>
        <_>
          <internalNodes>
            0 -1 48 5.9646212321240455e-05</internalNodes>
          <leafValues>
            2.0500433444976807e-01 -4.9284496903419495e-01</leafValues></_>
        <_>
          <internalNodes>
            0 -1 19 -5.4979920387268066e-03</internalNodes>
          <leafValues>
            2.4079892039299011e-01 -4.2154735326766968e-01</leafValues></_>
        <_>
          <internalNodes>
            0 -1 102 7.8277856111526489e-02</internalNodes>
          <leafValues>
            -1.7453245818614960e-01 6.3945651054382324e-01</leafValues></_>
        <_>
          <internalNodes>
            0 -1 33 -5.9820049500558525e-05</internalNodes>
          <leafValues>
            -4.8716586828231812e-01 2.4419395625591278e-01</leafValues></_></weakClassifiers></_>
    <!-- stage 11 -->
    <_>
      <maxWeakCount>12</maxWeakCount>
      <stageThreshold>-1.5444234609603882e+00</stageThreshold>
      <weakClassifiers>
        <_>
          <internalNodes>
            0 -1 83 -2.0340520143508911e-01</internalNodes>
          <leafValues>
            9.1304349899291992e-01 -6.8765133619308472e-01</leafValues></_>
        <_>
          <internalNodes>
            0 -1 47 2.7641934156417847e-01</internalNodes>
          <leafValues>
            -2.6707428693771362e-01 7.2877669334411621e-01</leafValues></_>
        <_>
          <internalNodes>
            0 -1 36 -3.4443072974681854e-02</internalNodes>
          <leafValues>
            -8.9926576614379883e-01 1.3079805672168732e-01</leafValues></_>
        <_>
          <internalNodes>
            0 -1 26 5.8095988606510218e-06</internalNodes>
          <leafValues>
            1.9421358406543732e-01 -5.2768516540527344e-01</leafValues></_>
        <_>
          <internalNodes>
            0 -1 148 -6.3037633895874023e-02</internalNodes>
          <leafValues>
            -8.0129271745681763e-01 8.2312397658824921e-02</leafValues></_>
        <_>
          <internalNodes>
            0 -1 175 -3.4231981262564659e-03</internalNodes>
          <leafValues>
            -1. 6.8674527108669281e-02</leafValues></_>
        <_>
          <internalNodes>
            0 -1 110 9.7856891807168722e-04</internalNodes>
          <leafValues>
            1.0999345779418945e-01 -6.5312010049819946e-01</leafValues></_>
        <_>
          <internalNodes>
            0 -1 67 -6.4889669418334961e-02</internalNodes>
          <leafValues>
            -1. 5.2697233855724335e-02</leafValues></_>
        <_>
          <internalNodes>
            0 -1 76 -3.4774557570926845e-04</internalNodes>
          <leafValues>
            1.6937923431396484e-01 -4.8383617401123047e-01</leafValues></_>
        <_>
          <internalNodes>
            0 -1 51 -5.6161098182201385e-02</internalNodes>
          <leafValues>
            6.3581526279449463e-01 -1.4517164230346680e-01</leafValues></_>
        <_>
          <internalNodes>
            0 -1 22 1.0815974092110991e-03</internalNodes>
          <leafValues>
            1.5800130367279053e-01 -5.8957469463348389e-01</leafValues></_>
        <_>
          <internalNodes>
            0 -1 7 -2.4960720539093018e-01</internalNodes>
          <leafValues>
            -7.5738054513931274e-01 9.1719798743724823e-02</leafValues></_></weakClassifiers></_>
    <!-- stage 12 -->
    <_>
      <maxWeakCount>10</maxWeakCount>
      <stageThreshold>-1.4818642139434814e+00</stageThreshold>
      <weakClassifiers>
        <_>
          <internalNodes>
            0 -1 111 -1.1280143260955811e-01</internalNodes>
          <leafValues>
            6.0000002384185791e-01 -6.9778871536254883e-01</leafValues></_>
        <_>
          <internalNodes>
            0 -1 2 3.4109293483197689e-04</internalNodes>
          <leafValues>
            1.8640074878931046e-02 -6.4164513349533081e-01</leafValues></_>
        <_>
          <internalNodes>
            0 -1 137 -5.6730759752099402e-06</internalNodes>
          <leafValues>
            -4.6666491031646729e-01 1.8732386827468872e-01</leafValues></_>
        <_>
          <internalNodes>
            0 -1 28 6.5395920537412167e-03</internalNodes>
          <leafValues>
            1.0751055926084518e-01 -1.</leafValues></_>
        <_>
          <internalNodes>
            0 -1 30 2.6024084072560072e-03</internalNodes>
          <leafValues>
            8.5337355732917786e-02 -8.6660844087600708e-01</leafValues></_>
        <_>
          <internalNodes>
            0 -1 141 2.5900756008923054e-03</internalNodes>
          <leafValues>
            -3.7359192967414856e-01 2.2232693433761597e-01</leafValues></_>
        <_>
          <internalNodes>
            0 -1 176 3.8352131377905607e-03</internalNodes>
          <leafValues>
            8.8246472179889679e-02 -9.7219890356063843e-01</leafValues></_>
        <_>
          <internalNodes>
            0 -1 72 2.4291986227035522e-01</internalNodes>
          <leafValues>
            5.9099443256855011e-02 -1.</leafValues></_>
        <_>
          <internalNodes>
            0 -1 124 2.4382441188208759e-04</internalNodes>
          <leafValues>
            -3.6093381047248840e-01 2.0352609455585480e-01</leafValues></_>
        <_>
          <internalNodes>
            0 -1 159 3.0993684049462900e-05</internalNodes>
          <leafValues>
            1.2264759838581085e-01 -7.3784381151199341e-01</leafValues></_></weakClassifiers></_>
    <!-- stage 13 -->
    <_>
      <maxWeakCount>13</maxWeakCount>
      <stageThreshold>-1.4635884761810303e+00</stageThreshold>
      <weakClassifiers>
        <_>
          <internalNodes>
            0 -1 80 -2.4485544860363007e-01</internalNodes>
          <leafValues>
            1. -6.9417476654052734e-01</leafValues></_>
        <_>
          <internalNodes>
            0 -1 45 2.4151550233364105e-01</internalNodes>
          <leafValues>
            -2.9183587431907654e-01 7.6043373346328735e-01</leafValues></_>
        <_>
          <internalNodes>
            0 -1 40 8.7086006999015808e-02</internalNodes>
          <leafValues>
            1.6740313172340393e-01 -6.6237330436706543e-01</leafValues></_>
        <_>
          <internalNodes>
            0 -1 55 -1.8491476774215698e-01</internalNodes>
          <leafValues>
            6.2663930654525757e-01 -1.3563393056392670e-01</leafValues></_>
        <_>
          <internalNodes>
            0 -1 132 2.3143868893384933e-02</internalNodes>
          <leafValues>
            1.0115242749452591e-01 -9.2341679334640503e-01</leafValues></_>
        <_>
          <internalNodes>
            0 -1 126 -9.0614368673413992e-04</internalNodes>
          <leafValues>
            3.7584537267684937e-01 -2.6025700569152832e-01</leafValues></_>
        <_>
          <internalNodes>
            0 -1 152 1.0299419984221458e-02</internalNodes>
          <leafValues>
            1.6712732613086700e-01 -5.7424330711364746e-01</leafValues></_>
        <_>
          <internalNodes>
            0 -1 8 7.8303006011992693e-04</internalNodes>
          <leafValues>
            7.1943856775760651e-02 -8.7875121831893921e-01</leafValues></_>
        <_>
          <internalNodes>
            0 -1 127 8.8581210002303123e-04</internalNodes>
          <leafValues>
            -3.6088061332702637e-01 2.1026092767715454e-01</leafValues></_>
        <_>
          <internalNodes>
            0 -1 50 3.7991344928741455e-02</internalNodes>
          <leafValues>
            -2.8132483363151550e-01 3.5657432675361633e-01</leafValues></_>
        <_>
          <internalNodes>
            0 -1 95 -8.7737008929252625e-02</internalNodes>
          <leafValues>
            6.8286079168319702e-01 -1.1720259487628937e-01</leafValues></_>
        <_>
          <internalNodes>
            0 -1 149 3.7342120776884258e-04</internalNodes>
          <leafValues>
            -2.4918705224990845e-01 3.6674341559410095e-01</leafValues></_>
        <_>
          <internalNodes>
            0 -1 93 2.1861291024833918e-03</internalNodes>
          <leafValues>
            -1.5186008810997009e-01 5.6915968656539917e-01</leafValues></_></weakClassifiers></_>
    <!-- stage 14 -->
    <_>
      <maxWeakCount>11</maxWeakCount>
      <stageThreshold>-1.3117097616195679e+00</stageThreshold>
      <weakClassifiers>
        <_>
          <internalNodes>
            0 -1 81 -1.8548886477947235e-01</internalNodes>
          <leafValues>
            5.1219511032104492e-01 -7.0297032594680786e-01</leafValues></_>
        <_>
          <internalNodes>
            0 -1 163 7.1727060712873936e-03</internalNodes>
          <leafValues>
            -4.7566592693328857e-01 2.7136570215225220e-01</leafValues></_>
        <_>
          <internalNodes>
            0 -1 29 6.0956605011597276e-04</internalNodes>
          <leafValues>
            7.0184640586376190e-02 -1.</leafValues></_>
        <_>
          <internalNodes>
            0 -1 34 1.7817610932979733e-04</internalNodes>
          <leafValues>
            -3.8279193639755249e-01 2.4316811561584473e-01</leafValues></_>
        <_>
          <internalNodes>
            0 -1 100 4.8289420083165169e-03</internalNodes>
          <leafValues>
            1.0367236286401749e-01 -7.6405471563339233e-01</leafValues></_>
        <_>
          <internalNodes>
            0 -1 122 -9.4084069132804871e-04</internalNodes>
          <leafValues>
            -9.5572489500045776e-01 8.0967999994754791e-02</leafValues></_>
        <_>
          <internalNodes>
            0 -1 0 -6.4744018018245697e-03</internalNodes>
          <leafValues>
            -8.3589702844619751e-01 8.0760814249515533e-02</leafValues></_>
        <_>
          <internalNodes>
            0 -1 107 2.8990793973207474e-02</internalNodes>
          <leafValues>
            7.8156292438507080e-02 -8.6175721883773804e-01</leafValues></_>
        <_>
          <internalNodes>
            0 -1 96 1.5236213803291321e-03</internalNodes>
          <leafValues>
            -4.3692013621330261e-01 1.8429255485534668e-01</leafValues></_>
        <_>
          <internalNodes>
            0 -1 145 7.8189074993133545e-03</internalNodes>
          <leafValues>
            2.9954662919044495e-01 -2.8944301605224609e-01</leafValues></_>
        <_>
          <internalNodes>
            0 -1 144 3.6750166327692568e-04</internalNodes>
          <leafValues>
            1.8289382755756378e-01 -4.5088163018226624e-01</leafValues></_></weakClassifiers></_>
    <!-- stage 15 -->
    <_>
      <maxWeakCount>12</maxWeakCount>
      <stageThreshold>-1.3312742710113525e+00</stageThreshold>
      <weakClassifiers>
        <_>
          <internalNodes>
            0 -1 60 3.9086721837520599e-02</internalNodes>
          <leafValues>
            -6.9305723905563354e-01 7.8571426868438721e-01</leafValues></_>
        <_>
          <internalNodes>
            0 -1 91 -1.2946854345500469e-02</internalNodes>
          <leafValues>
            1.0894539952278137e-01 -4.8091903328895569e-01</leafValues></_>
        <_>
          <internalNodes>
            0 -1 31 1.3579647988080978e-02</internalNodes>
          <leafValues>
            -3.1910449266433716e-01 3.6028942465782166e-01</leafValues></_>
        <_>
          <internalNodes>
            0 -1 75 2.3887397255748510e-03</internalNodes>
          <leafValues>
            -2.2760663926601410e-01 3.7005111575126648e-01</leafValues></_>
        <_>
          <internalNodes>
            0 -1 41 6.7582279443740845e-02</internalNodes>
          <leafValues>
            -1.0167242586612701e-01 8.5006397962570190e-01</leafValues></_>
        <_>
          <internalNodes>
            0 -1 166 9.5516996225342155e-05</internalNodes>
          <leafValues>
            2.0953649282455444e-01 -6.6610884666442871e-01</leafValues></_>
        <_>
          <internalNodes>
            0 -1 77 1.1988440528512001e-03</internalNodes>
          <leafValues>
            -3.1516721844673157e-01 3.4027841687202454e-01</leafValues></_>
        <_>
          <internalNodes>
            0 -1 87 3.1108227558434010e-03</internalNodes>
          <leafValues>
            1.8518027663230896e-01 -4.7453215718269348e-01</leafValues></_>
        <_>
          <internalNodes>
            0 -1 118 -2.6495283236727118e-05</internalNodes>
          <leafValues>
            -5.0448578596115112e-01 2.0016220211982727e-01</leafValues></_>
        <_>
          <internalNodes>
            0 -1 168 4.5498964027501643e-06</internalNodes>
          <leafValues>
            2.0164306461811066e-01 -4.7560238838195801e-01</leafValues></_>
        <_>
          <internalNodes>
            0 -1 116 7.4050549301318824e-05</internalNodes>
          <leafValues>
            -3.5453081130981445e-01 3.0477845668792725e-01</leafValues></_>
        <_>
          <internalNodes>
            0 -1 86 2.4555819109082222e-03</internalNodes>
          <leafValues>
            -1.6354817152023315e-01 5.6138640642166138e-01</leafValues></_></weakClassifiers></_>
    <!-- stage 16 -->
    <_>
      <maxWeakCount>11</maxWeakCount>
      <stageThreshold>-1.6311980485916138e+00</stageThreshold>
      <weakClassifiers>
        <_>
          <internalNodes>
            0 -1 113 -4.7544691711664200e-02</internalNodes>
          <leafValues>
            6.7567569017410278e-01 -7.0443350076675415e-01</leafValues></_>
        <_>
          <internalNodes>
            0 -1 12 2.8656845097430050e-04</internalNodes>
          <leafValues>
            -4.9377286434173584e-01 1.4789661765098572e-01</leafValues></_>
        <_>
          <internalNodes>
            0 -1 172 1.0858343914151192e-02</internalNodes>
          <leafValues>
            1.1507330089807510e-01 -6.4609515666961670e-01</leafValues></_>
        <_>
          <internalNodes>
            0 -1 49 2.0099768042564392e-01</internalNodes>
          <leafValues>
            1.5552572906017303e-01 -7.2251927852630615e-01</leafValues></_>
        <_>
          <internalNodes>
            0 -1 6 -1.5900425612926483e-01</internalNodes>
          <leafValues>
            -6.8048131465911865e-01 1.5282876789569855e-01</leafValues></_>
        <_>
          <internalNodes>
            0 -1 170 -3.4562085056677461e-04</internalNodes>
          <leafValues>
            3.9668956398963928e-01 -2.5664520263671875e-01</leafValues></_>
        <_>
          <internalNodes>
            0 -1 92 -2.0320445299148560e-02</internalNodes>
          <leafValues>
            -6.8222641944885254e-01 1.5936286747455597e-01</leafValues></_>
        <_>
          <internalNodes>
            0 -1 88 -2.8685425058938563e-04</internalNodes>
          <leafValues>
            2.6660138368606567e-01 -3.7490096688270569e-01</leafValues></_>
        <_>
          <internalNodes>
            0 -1 130 2.3833123850636184e-04</internalNodes>
          <leafValues>
            1.8579308688640594e-01 -4.0717947483062744e-01</leafValues></_>
        <_>
          <internalNodes>
            0 -1 39 1.1231888493057340e-04</internalNodes>
          <leafValues>
            1.9819344580173492e-01 -4.6541345119476318e-01</leafValues></_>
        <_>
          <internalNodes>
            0 -1 164 4.5695584267377853e-03</internalNodes>
          <leafValues>
            -1.7525021731853485e-01 5.7238894701004028e-01</leafValues></_></weakClassifiers></_>
    <!-- stage 17 -->
    <_>
      <maxWeakCount>12</maxWeakCount>
      <stageThreshold>-1.2127758264541626e+00</stageThreshold>
      <weakClassifiers>
        <_>
          <internalNodes>
            0 -1 74 -1.8686100840568542e-01</internalNodes>
          <leafValues>
            1. -6.8599033355712891e-01</leafValues></_>
        <_>
          <internalNodes>
            0 -1 174 8.7206829339265823e-03</internalNodes>
          <leafValues>
            -5.5464673787355423e-02 -8.8883626461029053e-01</leafValues></_>
        <_>
          <internalNodes>
            0 -1 97 4.1174015495926142e-04</internalNodes>
          <leafValues>
            -2.9105880856513977e-01 3.2232841849327087e-01</leafValues></_>
        <_>
          <internalNodes>
            0 -1 38 7.3193758726119995e-03</internalNodes>
          <leafValues>
            2.9505353420972824e-02 -1.</leafValues></_>
        <_>
          <internalNodes>
            0 -1 24 -6.3990546550485305e-06</internalNodes>
          <leafValues>
            -7.1598517894744873e-01 1.2529271841049194e-01</leafValues></_>
        <_>
          <internalNodes>
            0 -1 70 1.4008501311764121e-03</internalNodes>
          <leafValues>
            -2.6791468262672424e-01 2.9969355463981628e-01</leafValues></_>
        <_>
          <internalNodes>
            0 -1 69 -3.3303037285804749e-02</internalNodes>
          <leafValues>
            -6.0975766181945801e-01 1.0659734904766083e-01</leafValues></_>
        <_>
          <internalNodes>
            0 -1 42 1.2044008144584950e-05</internalNodes>
          <leafValues>
            2.7684116363525391e-01 -3.3755871653556824e-01</leafValues></_>
        <_>
          <internalNodes>
            0 -1 155 -2.6490124873816967e-03</internalNodes>
          <leafValues>
            4.3079259991645813e-01 -1.8576057255268097e-01</leafValues></_>
        <_>
          <internalNodes>
            0 -1 184 8.5299703641794622e-05</internalNodes>
          <leafValues>
            1.2270156294107437e-01 -7.5454735755920410e-01</leafValues></_>
        <_>
          <internalNodes>
            0 -1 158 3.1658843159675598e-02</internalNodes>
          <leafValues>
            7.1360096335411072e-02 -8.3036804199218750e-01</leafValues></_>
        <_>
          <internalNodes>
            0 -1 150 -5.9938170015811920e-03</internalNodes>
          <leafValues>
            2.7255710959434509e-01 -3.1013825535774231e-01</leafValues></_></weakClassifiers></_>
    <!-- stage 18 -->
    <_>
      <maxWeakCount>10</maxWeakCount>
      <stageThreshold>-1.3143628835678101e+00</stageThreshold>
      <weakClassifiers>
        <_>
          <internalNodes>
            0 -1 78 -4.0938502550125122e-01</internalNodes>
          <leafValues>
            1. -7.0036542415618896e-01</leafValues></_>
        <_>
          <internalNodes>
            0 -1 14 -4.2307842522859573e-03</internalNodes>
          <leafValues>
            2.2162510454654694e-01 -4.1240867972373962e-01</leafValues></_>
        <_>
          <internalNodes>
            0 -1 140 1.9077343167737126e-03</internalNodes>
          <leafValues>
            -3.3998087048530579e-01 2.7111649513244629e-01</leafValues></_>
        <_>
          <internalNodes>
            0 -1 11 1.2472593516577035e-04</internalNodes>
          <leafValues>
            1.3676241040229797e-01 -6.7261147499084473e-01</leafValues></_>
        <_>
          <internalNodes>
            0 -1 129 3.6955712130293250e-04</internalNodes>
          <leafValues>
            -1.7431397736072540e-01 4.8042187094688416e-01</leafValues></_>
        <_>
          <internalNodes>
            0 -1 156 -3.4648230212042108e-05</internalNodes>
          <leafValues>
            -3.9298596978187561e-01 2.7889603376388550e-01</leafValues></_>
        <_>
          <internalNodes>
            0 -1 160 1.8160738982260227e-03</internalNodes>
          <leafValues>
            -3.0859190225601196e-01 4.4276148080825806e-01</leafValues></_>
        <_>
          <internalNodes>
            0 -1 63 3.8381855119951069e-05</internalNodes>
          <leafValues>
            -2.0230488479137421e-01 5.6888365745544434e-01</leafValues></_>
        <_>
          <internalNodes>
            0 -1 25 1.4041053364053369e-03</internalNodes>
          <leafValues>
            -3.6763331294059753e-01 3.2409369945526123e-01</leafValues></_>
        <_>
          <internalNodes>
            0 -1 57 -3.4883983433246613e-02</internalNodes>
          <leafValues>
            -4.6955341100692749e-01 2.8388950228691101e-01</leafValues></_></weakClassifiers></_>
    <!-- stage 19 -->
    <_>
      <maxWeakCount>10</maxWeakCount>
      <stageThreshold>-1.4760156869888306e+00</stageThreshold>
      <weakClassifiers>
        <_>
          <internalNodes>
            0 -1 82 -6.5091490745544434e-02</internalNodes>
          <leafValues>
            1. -7.0869034528732300e-01</leafValues></_>
        <_>
          <internalNodes>
            0 -1 99 1.2477510608732700e-03</internalNodes>
          <leafValues>
            -6.4822143316268921e-01 1.6137404739856720e-01</leafValues></_>
        <_>
          <internalNodes>
            0 -1 147 -6.3753774156793952e-04</internalNodes>
          <leafValues>
            -5.1502412557601929e-01 2.2740527987480164e-01</leafValues></_>
        <_>
          <internalNodes>
            0 -1 120 1.1453532351879403e-05</internalNodes>
          <leafValues>
            3.1923601031303406e-01 -4.1774773597717285e-01</leafValues></_>
        <_>
          <internalNodes>
            0 -1 135 3.7453998811542988e-03</internalNodes>
          <leafValues>
            -1.9369360804557800e-01 6.8294346332550049e-01</leafValues></_>
        <_>
          <internalNodes>
            0 -1 66 -4.0767583996057510e-03</internalNodes>
          <leafValues>
            -8.3948725461959839e-01 1.5039977431297302e-01</leafValues></_>
        <_>
          <internalNodes>
            0 -1 165 -1.1401291703805327e-03</internalNodes>
          <leafValues>
            8.5002630949020386e-01 -1.7736011743545532e-01</leafValues></_>
        <_>
          <internalNodes>
            0 -1 16 6.8299188569653779e-05</internalNodes>
          <leafValues>
            3.4351330995559692e-01 -3.9753073453903198e-01</leafValues></_>
        <_>
          <internalNodes>
            0 -1 23 -4.5258114114403725e-03</internalNodes>
          <leafValues>
            -4.4529601931571960e-01 2.5587251782417297e-01</leafValues></_>
        <_>
          <internalNodes>
            0 -1 52 -1.5047996384964790e-05</internalNodes>
          <leafValues>
            3.9367523789405823e-01 -3.4126365184783936e-01</leafValues></_></weakClassifiers></_></stages>
  <features>
    <_>
      <rects>
        <_>
          0 0 1 15 -1.</_>
        <_>
          0 5 1 5 3.</_></rects>
      <tilted>0</tilted></_>
    <_>
      <rects>
        <_>
          0 0 6 1 -1.</_>
        <_>
          2 0 2 1 3.</_></rects>
      <tilted>0</tilted></_>
    <_>
      <rects>
        <_>
          0 0 32 6 -1.</_>
        <_>
          0 3 32 3 2.</_></rects>
      <tilted>0</tilted></_>
    <_>
      <rects>
        <_>
          0 1 1 15 -1.</_>
        <_>
          0 6 1 5 3.</_></rects>
      <tilted>0</tilted></_>
    <_>
      <rects>
        <_>
          0 1 1 18 -1.</_>
        <_>
          0 7 1 6 3.</_></rects>
      <tilted>0</tilted></_>
    <_>
      <rects>
        <_>
          0 1 4 26 -1.</_>
        <_>
          2 1 2 26 2.</_></rects>
      <tilted>0</tilted></_>
    <_>
      <rects>
        <_>
          0 1 32 29 -1.</_>
        <_>
          16 1 16 29 2.</_></rects>
      <tilted>0</tilted></_>
    <_>
      <rects>
        <_>
          0 1 29 30 -1.</_>
        <_>
          0 16 29 15 2.</_></rects>
      <tilted>0</tilted></_>
    <_>
      <rects>
        <_>
          0 2 1 12 -1.</_>
        <_>
          0 6 1 4 3.</_></rects>
      <tilted>0</tilted></_>
    <_>
      <rects>
        <_>
          0 2 1 22 -1.</_>
        <_>
          0 13 1 11 2.</_></rects>
      <tilted>0</tilted></_>
    <_>
      <rects>
        <_>
          0 4 1 24 -1.</_>
        <_>
          0 12 1 8 3.</_></rects>
      <tilted>0</tilted></_>
    <_>
      <rects>
        <_>
          0 5 5 3 -1.</_>
        <_>
          0 6 5 1 3.</_></rects>
      <tilted>0</tilted></_>
    <_>
      <rects>
        <_>
          0 5 13 18 -1.</_>
        <_>
          0 11 13 6 3.</_></rects>
      <tilted>0</tilted></_>
    <_>
      <rects>
        <_>
          0 6 1 18 -1.</_>
        <_>
          0 12 1 6 3.</_></rects>
      <tilted>0</tilted></_>
    <_>
      <rects>
        <_>
          0 6 4 21 -1.</_>
        <_>
          2 6 2 21 2.</_></rects>
      <tilted>0</tilted></_>
    <_>
      <rects>
        <_>
          0 8 1 15 -1.</_>
        <_>
          0 13 1 5 3.</_></rects>
      <tilted>0</tilted></_>
    <_>
      <rects>
        <_>
          0 8 1 24 -1.</_>
        <_>
          0 16 1 8 3.</_></rects>
      <tilted>0</tilted></_>
    <_>
      <rects>
        <_>
          0 10 8 12 -1.</_>
        <_>
          4 10 4 12 2.</_></rects>
      <tilted>0</tilted></_>
    <_>
      <rects>
        <_>
          0 11 1 21 -1.</_>
        <_>
          0 18 1 7 3.</_></rects>
      <tilted>0</tilted></_>
    <_>
      <rects>
        <_>
          0 13 30 2 -1.</_>
        <_>
          10 13 10 2 3.</_></rects>
      <tilted>0</tilted></_>
    <_>
      <rects>
        <_>
          0 14 1 12 -1.</_>
        <_>
          0 20 1 6 2.</_></rects>
      <tilted>0</tilted></_>
    <_>
      <rects>
        <_>
          0 15 1 15 -1.</_>
        <_>
          0 20 1 5 3.</_></rects>
      <tilted>0</tilted></_>
    <_>
      <rects>
        <_>
          0 17 12 1 -1.</_>
        <_>
          4 17 4 1 3.</_></rects>
      <tilted>0</tilted></_>
    <_>
      <rects>
        <_>
          0 17 18 9 -1.</_>
        <_>
          0 20 18 3 3.</_></rects>
      <tilted>0</tilted></_>
    <_>
      <rects>
        <_>
          0 18 2 2 -1.</_>
        <_>
          0 18 1 1 2.</_>
        <_>
          1 19 1 1 2.</_></rects>
      <tilted>0</tilted></_>
    <_>
      <rects>
        <_>
          0 18 18 1 -1.</_>
        <_>
          6 18 6 1 3.</_></rects>
      <tilted>0</tilted></_>
    <_>
      <rects>
        <_>
          0 21 1 10 -1.</_>
        <_>
          0 26 1 5 2.</_></rects>
      <tilted>0</tilted></_>
    <_>
      <rects>
        <_>
          0 22 10 10 -1.</_>
        <_>
          0 22 5 5 2.</_>
        <_>
          5 27 5 5 2.</_></rects>
      <tilted>0</tilted></_>
    <_>
      <rects>
        <_>
          0 31 24 1 -1.</_>
        <_>
          8 31 8 1 3.</_></rects>
      <tilted>0</tilted></_>
    <_>
      <rects>
        <_>
          1 0 6 2 -1.</_>
        <_>
          3 0 2 2 3.</_></rects>
      <tilted>0</tilted></_>
    <_>
      <rects>
        <_>
          1 0 15 1 -1.</_>
        <_>
          6 0 5 1 3.</_></rects>
      <tilted>0</tilted></_>
    <_>
      <rects>
        <_>
          1 4 30 21 -1.</_>
        <_>
          1 11 30 7 3.</_></rects>
      <tilted>0</tilted></_>
    <_>
      <rects>
        <_>
          1 5 26 24 -1.</_>
        <_>
          1 17 26 12 2.</_></rects>
      <tilted>0</tilted></_>
    <_>
      <rects>
        <_>
          1 7 8 2 -1.</_>
        <_>
          5 7 4 2 2.</_></rects>
      <tilted>0</tilted></_>
    <_>
      <rects>
        <_>
          1 15 18 1 -1.</_>
        <_>
          7 15 6 1 3.</_></rects>
      <tilted>0</tilted></_>
    <_>
      <rects>
        <_>
          1 16 15 1 -1.</_>
        <_>
          6 16 5 1 3.</_></rects>
      <tilted>0</tilted></_>
    <_>
      <rects>
        <_>
          1 17 16 3 -1.</_>
        <_>
          9 17 8 3 2.</_></rects>
      <tilted>0</tilted></_>
    <_>
      <rects>
        <_>
          1 28 8 1 -1.</_>
        <_>
          5 28 4 1 2.</_></rects>
      <tilted>0</tilted></_>
    <_>
      <rects>
        <_>
          1 31 27 1 -1.</_>
        <_>
          10 31 9 1 3.</_></rects>
      <tilted>0</tilted></_>
    <_>
      <rects>
        <_>
          2 2 9 4 -1.</_>
        <_>
          5 2 3 4 3.</_></rects>
      <tilted>0</tilted></_>
    <_>
      <rects>
        <_>
          2 5 21 24 -1.</_>
        <_>
          9 5 7 24 3.</_></rects>
      <tilted>0</tilted></_>
    <_>
      <rects>
        <_>
          2 14 12 10 -1.</_>
        <_>
          2 19 12 5 2.</_></rects>
      <tilted>0</tilted></_>
    <_>
      <rects>
        <_>
          2 20 9 10 -1.</_>
        <_>
          2 25 9 5 2.</_></rects>
      <tilted>0</tilted></_>
    <_>
      <rects>
        <_>
          2 31 15 1 -1.</_>
        <_>
          7 31 5 1 3.</_></rects>
      <tilted>0</tilted></_>
    <_>
      <rects>
        <_>
          3 0 12 1 -1.</_>
        <_>
          7 0 4 1 3.</_></rects>
      <tilted>0</tilted></_>
    <_>
      <rects>
        <_>
          3 2 26 26 -1.</_>
        <_>
          3 2 13 13 2.</_>
        <_>
          16 15 13 13 2.</_></rects>
      <tilted>0</tilted></_>
    <_>
      <rects>
        <_>
          3 3 24 8 -1.</_>
        <_>
          11 3 8 8 3.</_></rects>
      <tilted>0</tilted></_>
    <_>
      <rects>
        <_>
          3 3 26 26 -1.</_>
        <_>
          3 3 13 13 2.</_>
        <_>
          16 16 13 13 2.</_></rects>
      <tilted>0</tilted></_>
    <_>
      <rects>
        <_>
          3 4 18 3 -1.</_>
        <_>
          3 5 18 1 3.</_></rects>
      <tilted>0</tilted></_>
    <_>
      <rects>
        <_>
          3 5 28 24 -1.</_>
        <_>
          17 5 14 24 2.</_></rects>
      <tilted>0</tilted></_>
    <_>
      <rects>
        <_>
          3 6 27 24 -1.</_>
        <_>
          3 14 27 8 3.</_></rects>
      <tilted>0</tilted></_>
    <_>
      <rects>
        <_>
          3 7 9 18 -1.</_>
        <_>
          3 13 9 6 3.</_></rects>
      <tilted>0</tilted></_>
    <_>
      <rects>
        <_>
          3 18 17 2 -1.</_>
        <_>
          3 19 17 1 2.</_></rects>
      <tilted>0</tilted></_>
    <_>
      <rects>
        <_>
          4 0 6 1 -1.</_>
        <_>
          6 0 2 1 3.</_></rects>
      <tilted>0</tilted></_>
    <_>
      <rects>
        <_>
          4 4 27 5 -1.</_>
        <_>
          13 4 9 5 3.</_></rects>
      <tilted>0</tilted></_>
    <_>
      <rects>
        <_>
          4 5 22 26 -1.</_>
        <_>
          4 5 11 13 2.</_>
        <_>
          15 18 11 13 2.</_></rects>
      <tilted>0</tilted></_>
    <_>
      <rects>
        <_>
          4 7 28 15 -1.</_>
        <_>
          18 7 14 15 2.</_></rects>
      <tilted>0</tilted></_>
    <_>
      <rects>
        <_>
          4 13 14 7 -1.</_>
        <_>
          11 13 7 7 2.</_></rects>
      <tilted>0</tilted></_>
    <_>
      <rects>
        <_>
          4 31 27 1 -1.</_>
        <_>
          13 31 9 1 3.</_></rects>
      <tilted>0</tilted></_>
    <_>
      <rects>
        <_>
          5 1 21 31 -1.</_>
        <_>
          12 1 7 31 3.</_></rects>
      <tilted>0</tilted></_>
    <_>
      <rects>
        <_>
          5 3 12 3 -1.</_>
        <_>
          9 3 4 3 3.</_></rects>
      <tilted>0</tilted></_>
    <_>
      <rects>
        <_>
          5 3 24 7 -1.</_>
        <_>
          13 3 8 7 3.</_></rects>
      <tilted>0</tilted></_>
    <_>
      <rects>
        <_>
          5 4 18 24 -1.</_>
        <_>
          11 4 6 24 3.</_></rects>
      <tilted>0</tilted></_>
    <_>
      <rects>
        <_>
          5 17 4 4 -1.</_>
        <_>
          5 17 2 2 2.</_>
        <_>
          7 19 2 2 2.</_></rects>
      <tilted>0</tilted></_>
    <_>
      <rects>
        <_>
          5 17 14 1 -1.</_>
        <_>
          12 17 7 1 2.</_></rects>
      <tilted>0</tilted></_>
    <_>
      <rects>
        <_>
          6 5 9 18 -1.</_>
        <_>
          6 11 9 6 3.</_></rects>
      <tilted>0</tilted></_>
    <_>
      <rects>
        <_>
          6 13 2 14 -1.</_>
        <_>
          6 13 1 7 2.</_>
        <_>
          7 20 1 7 2.</_></rects>
      <tilted>0</tilted></_>
    <_>
      <rects>
        <_>
          6 13 16 5 -1.</_>
        <_>
          14 13 8 5 2.</_></rects>
      <tilted>0</tilted></_>
    <_>
      <rects>
        <_>
          6 13 26 7 -1.</_>
        <_>
          19 13 13 7 2.</_></rects>
      <tilted>0</tilted></_>
    <_>
      <rects>
        <_>
          6 15 10 8 -1.</_>
        <_>
          11 15 5 8 2.</_></rects>
      <tilted>0</tilted></_>
    <_>
      <rects>
        <_>
          6 26 15 6 -1.</_>
        <_>
          6 29 15 3 2.</_></rects>
      <tilted>0</tilted></_>
    <_>
      <rects>
        <_>
          6 31 3 1 -1.</_>
        <_>
          7 31 1 1 3.</_></rects>
      <tilted>0</tilted></_>
    <_>
      <rects>
        <_>
          7 0 20 28 -1.</_>
        <_>
          17 0 10 28 2.</_></rects>
      <tilted>0</tilted></_>
    <_>
      <rects>
        <_>
          7 2 18 23 -1.</_>
        <_>
          13 2 6 23 3.</_></rects>
      <tilted>0</tilted></_>
    <_>
      <rects>
        <_>
          7 3 18 5 -1.</_>
        <_>
          13 3 6 5 3.</_></rects>
      <tilted>0</tilted></_>
    <_>
      <rects>
        <_>
          7 6 19 6 -1.</_>
        <_>
          7 8 19 2 3.</_></rects>
      <tilted>0</tilted></_>
    <_>
      <rects>
        <_>
          7 17 12 1 -1.</_>
        <_>
          13 17 6 1 2.</_></rects>
      <tilted>0</tilted></_>
    <_>
      <rects>
        <_>
          7 25 18 3 -1.</_>
        <_>
          13 25 6 3 3.</_></rects>
      <tilted>0</tilted></_>
    <_>
      <rects>
        <_>
          8 0 15 27 -1.</_>
        <_>
          13 0 5 27 3.</_></rects>
      <tilted>0</tilted></_>
    <_>
      <rects>
        <_>
          8 0 24 1 -1.</_>
        <_>
          16 0 8 1 3.</_></rects>
      <tilted>0</tilted></_>
    <_>
      <rects>
        <_>
          8 1 15 11 -1.</_>
        <_>
          13 1 5 11 3.</_></rects>
      <tilted>0</tilted></_>
    <_>
      <rects>
        <_>
          8 1 10 23 -1.</_>
        <_>
          13 1 5 23 2.</_></rects>
      <tilted>0</tilted></_>
    <_>
      <rects>
        <_>
          8 2 15 5 -1.</_>
        <_>
          13 2 5 5 3.</_></rects>
      <tilted>0</tilted></_>
    <_>
      <rects>
        <_>
          8 2 15 7 -1.</_>
        <_>
          13 2 5 7 3.</_></rects>
      <tilted>0</tilted></_>
    <_>
      <rects>
        <_>
          8 11 6 2 -1.</_>
        <_>
          8 12 6 1 2.</_></rects>
      <tilted>0</tilted></_>
    <_>
      <rects>
        <_>
          8 12 6 12 -1.</_>
        <_>
          8 16 6 4 3.</_></rects>
      <tilted>0</tilted></_>
    <_>
      <rects>
        <_>
          8 14 1 12 -1.</_>
        <_>
          8 20 1 6 2.</_></rects>
      <tilted>0</tilted></_>
    <_>
      <rects>
        <_>
          8 19 8 9 -1.</_>
        <_>
          8 22 8 3 3.</_></rects>
      <tilted>0</tilted></_>
    <_>
      <rects>
        <_>
          8 19 21 4 -1.</_>
        <_>
          8 21 21 2 2.</_></rects>
      <tilted>0</tilted></_>
    <_>
      <rects>
        <_>
          8 23 23 9 -1.</_>
        <_>
          8 26 23 3 3.</_></rects>
      <tilted>0</tilted></_>
    <_>
      <rects>
        <_>
          9 0 21 1 -1.</_>
        <_>
          16 0 7 1 3.</_></rects>
      <tilted>0</tilted></_>
    <_>
      <rects>
        <_>
          9 0 19 12 -1.</_>
        <_>
          9 6 19 6 2.</_></rects>
      <tilted>0</tilted></_>
    <_>
      <rects>
        <_>
          9 16 9 8 -1.</_>
        <_>
          9 20 9 4 2.</_></rects>
      <tilted>0</tilted></_>
    <_>
      <rects>
        <_>
          10 0 2 14 -1.</_>
        <_>
          10 0 1 7 2.</_>
        <_>
          11 7 1 7 2.</_></rects>
      <tilted>0</tilted></_>
    <_>
      <rects>
        <_>
          10 1 12 30 -1.</_>
        <_>
          14 1 4 30 3.</_></rects>
      <tilted>0</tilted></_>
    <_>
      <rects>
        <_>
          10 7 13 12 -1.</_>
        <_>
          10 13 13 6 2.</_></rects>
      <tilted>0</tilted></_>
    <_>
      <rects>
        <_>
          10 18 22 1 -1.</_>
        <_>
          21 18 11 1 2.</_></rects>
      <tilted>0</tilted></_>
    <_>
      <rects>
        <_>
          10 23 21 7 -1.</_>
        <_>
          17 23 7 7 3.</_></rects>
      <tilted>0</tilted></_>
    <_>
      <rects>
        <_>
          10 30 10 2 -1.</_>
        <_>
          15 30 5 2 2.</_></rects>
      <tilted>0</tilted></_>
    <_>
      <rects>
        <_>
          11 0 12 14 -1.</_>
        <_>
          15 0 4 14 3.</_></rects>
      <tilted>0</tilted></_>
    <_>
      <rects>
        <_>
          11 0 21 1 -1.</_>
        <_>
          18 0 7 1 3.</_></rects>
      <tilted>0</tilted></_>
    <_>
      <rects>
        <_>
          11 1 9 30 -1.</_>
        <_>
          14 1 3 30 3.</_></rects>
      <tilted>0</tilted></_>
    <_>
      <rects>
        <_>
          11 3 10 27 -1.</_>
        <_>
          11 12 10 9 3.</_></rects>
      <tilted>0</tilted></_>
    <_>
      <rects>
        <_>
          11 11 5 9 -1.</_>
        <_>
          11 14 5 3 3.</_></rects>
      <tilted>0</tilted></_>
    <_>
      <rects>
        <_>
          11 16 6 3 -1.</_>
        <_>
          13 16 2 3 3.</_></rects>
      <tilted>0</tilted></_>
    <_>
      <rects>
        <_>
          11 16 9 1 -1.</_>
        <_>
          14 16 3 1 3.</_></rects>
      <tilted>0</tilted></_>
    <_>
      <rects>
        <_>
          11 20 9 1 -1.</_>
        <_>
          14 20 3 1 3.</_></rects>
      <tilted>0</tilted></_>
    <_>
      <rects>
        <_>
          11 25 15 7 -1.</_>
        <_>
          16 25 5 7 3.</_></rects>
      <tilted>0</tilted></_>
    <_>
      <rects>
        <_>
          12 2 9 13 -1.</_>
        <_>
          15 2 3 13 3.</_></rects>
      <tilted>0</tilted></_>
    <_>
      <rects>
        <_>
          12 13 20 2 -1.</_>
        <_>
          22 13 10 2 2.</_></rects>
      <tilted>0</tilted></_>
    <_>
      <rects>
        <_>
          12 31 20 1 -1.</_>
        <_>
          22 31 10 1 2.</_></rects>
      <tilted>0</tilted></_>
    <_>
      <rects>
        <_>
          13 9 6 20 -1.</_>
        <_>
          15 9 2 20 3.</_></rects>
      <tilted>0</tilted></_>
    <_>
      <rects>
        <_>
          13 10 6 5 -1.</_>
        <_>
          15 10 2 5 3.</_></rects>
      <tilted>0</tilted></_>
    <_>
      <rects>
        <_>
          13 10 4 21 -1.</_>
        <_>
          15 10 2 21 2.</_></rects>
      <tilted>0</tilted></_>
    <_>
      <rects>
        <_>
          13 12 16 10 -1.</_>
        <_>
          21 12 8 10 2.</_></rects>
      <tilted>0</tilted></_>
    <_>
      <rects>
        <_>
          13 16 6 2 -1.</_>
        <_>
          15 16 2 2 3.</_></rects>
      <tilted>0</tilted></_>
    <_>
      <rects>
        <_>
          13 17 3 4 -1.</_>
        <_>
          14 17 1 4 3.</_></rects>
      <tilted>0</tilted></_>
    <_>
      <rects>
        <_>
          13 18 6 10 -1.</_>
        <_>
          15 18 2 10 3.</_></rects>
      <tilted>0</tilted></_>
    <_>
      <rects>
        <_>
          13 21 2 3 -1.</_>
        <_>
          13 22 2 1 3.</_></rects>
      <tilted>0</tilted></_>
    <_>
      <rects>
        <_>
          13 31 12 1 -1.</_>
        <_>
          17 31 4 1 3.</_></rects>
      <tilted>0</tilted></_>
    <_>
      <rects>
        <_>
          14 1 7 6 -1.</_>
        <_>
          14 3 7 2 3.</_></rects>
      <tilted>0</tilted></_>
    <_>
      <rects>
        <_>
          14 4 1 27 -1.</_>
        <_>
          14 13 1 9 3.</_></rects>
      <tilted>0</tilted></_>
    <_>
      <rects>
        <_>
          14 5 3 3 -1.</_>
        <_>
          14 6 3 1 3.</_></rects>
      <tilted>0</tilted></_>
    <_>
      <rects>
        <_>
          14 7 2 22 -1.</_>
        <_>
          14 18 2 11 2.</_></rects>
      <tilted>0</tilted></_>
    <_>
      <rects>
        <_>
          14 8 1 9 -1.</_>
        <_>
          14 11 1 3 3.</_></rects>
      <tilted>0</tilted></_>
    <_>
      <rects>
        <_>
          14 8 4 9 -1.</_>
        <_>
          14 11 4 3 3.</_></rects>
      <tilted>0</tilted></_>
    <_>
      <rects>
        <_>
          14 13 4 3 -1.</_>
        <_>
          16 13 2 3 2.</_></rects>
      <tilted>0</tilted></_>
    <_>
      <rects>
        <_>
          14 14 1 16 -1.</_>
        <_>
          14 22 1 8 2.</_></rects>
      <tilted>0</tilted></_>
    <_>
      <rects>
        <_>
          14 16 15 2 -1.</_>
        <_>
          19 16 5 2 3.</_></rects>
      <tilted>0</tilted></_>
    <_>
      <rects>
        <_>
          14 19 9 2 -1.</_>
        <_>
          14 20 9 1 2.</_></rects>
      <tilted>0</tilted></_>
    <_>
      <rects>
        <_>
          15 2 2 11 -1.</_>
        <_>
          16 2 1 11 2.</_></rects>
      <tilted>0</tilted></_>
    <_>
      <rects>
        <_>
          15 8 2 9 -1.</_>
        <_>
          15 11 2 3 3.</_></rects>
      <tilted>0</tilted></_>
    <_>
      <rects>
        <_>
          15 15 8 3 -1.</_>
        <_>
          19 15 4 3 2.</_></rects>
      <tilted>0</tilted></_>
    <_>
      <rects>
        <_>
          15 16 1 2 -1.</_>
        <_>
          15 17 1 1 2.</_></rects>
      <tilted>0</tilted></_>
    <_>
      <rects>
        <_>
          15 16 1 6 -1.</_>
        <_>
          15 19 1 3 2.</_></rects>
      <tilted>0</tilted></_>
    <_>
      <rects>
        <_>
          15 17 10 8 -1.</_>
        <_>
          15 17 5 4 2.</_>
        <_>
          20 21 5 4 2.</_></rects>
      <tilted>0</tilted></_>
    <_>
      <rects>
        <_>
          16 0 3 20 -1.</_>
        <_>
          16 10 3 10 2.</_></rects>
      <tilted>0</tilted></_>
    <_>
      <rects>
        <_>
          16 4 1 6 -1.</_>
        <_>
          16 7 1 3 2.</_></rects>
      <tilted>0</tilted></_>
    <_>
      <rects>
        <_>
          16 12 16 9 -1.</_>
        <_>
          24 12 8 9 2.</_></rects>
      <tilted>0</tilted></_>
    <_>
      <rects>
        <_>
          16 14 6 5 -1.</_>
        <_>
          19 14 3 5 2.</_></rects>
      <tilted>0</tilted></_>
    <_>
      <rects>
        <_>
          16 14 15 8 -1.</_>
        <_>
          21 14 5 8 3.</_></rects>
      <tilted>0</tilted></_>
    <_>
      <rects>
        <_>
          16 15 9 5 -1.</_>
        <_>
          19 15 3 5 3.</_></rects>
      <tilted>0</tilted></_>
    <_>
      <rects>
        <_>
          16 16 4 2 -1.</_>
        <_>
          18 16 2 2 2.</_></rects>
      <tilted>0</tilted></_>
    <_>
      <rects>
        <_>
          16 31 15 1 -1.</_>
        <_>
          21 31 5 1 3.</_></rects>
      <tilted>0</tilted></_>
    <_>
      <rects>
        <_>
          17 0 3 16 -1.</_>
        <_>
          18 0 1 16 3.</_></rects>
      <tilted>0</tilted></_>
    <_>
      <rects>
        <_>
          17 8 10 12 -1.</_>
        <_>
          22 8 5 12 2.</_></rects>
      <tilted>0</tilted></_>
    <_>
      <rects>
        <_>
          17 8 15 18 -1.</_>
        <_>
          17 14 15 6 3.</_></rects>
      <tilted>0</tilted></_>
    <_>
      <rects>
        <_>
          17 19 7 3 -1.</_>
        <_>
          17 20 7 1 3.</_></rects>
      <tilted>0</tilted></_>
    <_>
      <rects>
        <_>
          18 0 12 28 -1.</_>
        <_>
          22 0 4 28 3.</_></rects>
      <tilted>0</tilted></_>
    <_>
      <rects>
        <_>
          18 3 12 5 -1.</_>
        <_>
          22 3 4 5 3.</_></rects>
      <tilted>0</tilted></_>
    <_>
      <rects>
        <_>
          18 11 14 20 -1.</_>
        <_>
          18 11 7 10 2.</_>
        <_>
          25 21 7 10 2.</_></rects>
      <tilted>0</tilted></_>
    <_>
      <rects>
        <_>
          19 4 8 28 -1.</_>
        <_>
          19 4 4 14 2.</_>
        <_>
          23 18 4 14 2.</_></rects>
      <tilted>0</tilted></_>
    <_>
      <rects>
        <_>
          19 10 1 22 -1.</_>
        <_>
          19 21 1 11 2.</_></rects>
      <tilted>0</tilted></_>
    <_>
      <rects>
        <_>
          19 28 12 3 -1.</_>
        <_>
          25 28 6 3 2.</_></rects>
      <tilted>0</tilted></_>
    <_>
      <rects>
        <_>
          19 30 11 2 -1.</_>
        <_>
          19 31 11 1 2.</_></rects>
      <tilted>0</tilted></_>
    <_>
      <rects>
        <_>
          20 5 1 12 -1.</_>
        <_>
          20 11 1 6 2.</_></rects>
      <tilted>0</tilted></_>
    <_>
      <rects>
        <_>
          20 17 4 8 -1.</_>
        <_>
          20 17 2 4 2.</_>
        <_>
          22 21 2 4 2.</_></rects>
      <tilted>0</tilted></_>
    <_>
      <rects>
        <_>
          21 0 8 1 -1.</_>
        <_>
          25 0 4 1 2.</_></rects>
      <tilted>0</tilted></_>
    <_>
      <rects>
        <_>
          21 9 8 12 -1.</_>
        <_>
          25 9 4 12 2.</_></rects>
      <tilted>0</tilted></_>
    <_>
      <rects>
        <_>
          22 0 10 1 -1.</_>
        <_>
          27 0 5 1 2.</_></rects>
      <tilted>0</tilted></_>
    <_>
      <rects>
        <_>
          22 4 10 20 -1.</_>
        <_>
          22 4 5 10 2.</_>
        <_>
          27 14 5 10 2.</_></rects>
      <tilted>0</tilted></_>
    <_>
      <rects>
        <_>
          23 12 9 3 -1.</_>
        <_>
          23 13 9 1 3.</_></rects>
      <tilted>0</tilted></_>
    <_>
      <rects>
        <_>
          23 29 8 3 -1.</_>
        <_>
          23 30 8 1 3.</_></rects>
      <tilted>0</tilted></_>
    <_>
      <rects>
        <_>
          24 0 8 32 -1.</_>
        <_>
          28 0 4 32 2.</_></rects>
      <tilted>0</tilted></_>
    <_>
      <rects>
        <_>
          24 16 8 6 -1.</_>
        <_>
          24 19 8 3 2.</_></rects>
      <tilted>0</tilted></_>
    <_>
      <rects>
        <_>
          25 10 2 6 -1.</_>
        <_>
          25 10 1 3 2.</_>
        <_>
          26 13 1 3 2.</_></rects>
      <tilted>0</tilted></_>
    <_>
      <rects>
        <_>
          25 29 6 2 -1.</_>
        <_>
          27 29 2 2 3.</_></rects>
      <tilted>0</tilted></_>
    <_>
      <rects>
        <_>
          25 30 4 2 -1.</_>
        <_>
          27 30 2 2 2.</_></rects>
      <tilted>0</tilted></_>
    <_>
      <rects>
        <_>
          27 9 2 18 -1.</_>
        <_>
          27 9 1 9 2.</_>
        <_>
          28 18 1 9 2.</_></rects>
      <tilted>0</tilted></_>
    <_>
      <rects>
        <_>
          28 0 4 25 -1.</_>
        <_>
          30 0 2 25 2.</_></rects>
      <tilted>0</tilted></_>
    <_>
      <rects>
        <_>
          28 5 2 24 -1.</_>
        <_>
          28 5 1 12 2.</_>
        <_>
          29 17 1 12 2.</_></rects>
      <tilted>0</tilted></_>
    <_>
      <rects>
        <_>
          28 17 3 11 -1.</_>
        <_>
          29 17 1 11 3.</_></rects>
      <tilted>0</tilted></_>
    <_>
      <rects>
        <_>
          30 0 2 30 -1.</_>
        <_>
          30 10 2 10 3.</_></rects>
      <tilted>0</tilted></_>
    <_>
      <rects>
        <_>
          30 6 2 9 -1.</_>
        <_>
          30 9 2 3 3.</_></rects>
      <tilted>0</tilted></_>
    <_>
      <rects>
        <_>
          31 0 1 32 -1.</_>
        <_>
          31 16 1 16 2.</_></rects>
      <tilted>0</tilted></_>
    <_>
      <rects>
        <_>
          31 2 1 21 -1.</_>
        <_>
          31 9 1 7 3.</_></rects>
      <tilted>0</tilted></_>
    <_>
      <rects>
        <_>
          31 3 1 15 -1.</_>
        <_>
          31 8 1 5 3.</_></rects>
      <tilted>0</tilted></_>
    <_>
      <rects>
        <_>
          31 4 1 6 -1.</_>
        <_>
          31 6 1 2 3.</_></rects>
      <tilted>0</tilted></_>
    <_>
      <rects>
        <_>
          31 4 1 24 -1.</_>
        <_>
          31 12 1 8 3.</_></rects>
      <tilted>0</tilted></_>
    <_>
      <rects>
        <_>
          31 5 1 27 -1.</_>
        <_>
          31 14 1 9 3.</_></rects>
      <tilted>0</tilted></_>
    <_>
      <rects>
        <_>
          31 6 1 21 -1.</_>
        <_>
          31 13 1 7 3.</_></rects>
      <tilted>0</tilted></_>
    <_>
      <rects>
        <_>
          31 9 1 21 -1.</_>
        <_>
          31 16 1 7 3.</_></rects>
      <tilted>0</tilted></_>
    <_>
      <rects>
        <_>
          31 14 1 12 -1.</_>
        <_>
          31 18 1 4 3.</_></rects>
      <tilted>0</tilted></_>
    <_>
      <rects>
        <_>
          31 18 1 12 -1.</_>
        <_>
          31 22 1 4 3.</_></rects>
      <tilted>0</tilted></_>
    <_>
      <rects>
        <_>
          31 19 1 6 -1.</_>
        <_>
          31 21 1 2 3.</_></rects>
      <tilted>0</tilted></_>
    <_>
      <rects>
        <_>
          31 20 1 4 -1.</_>
        <_>
          31 22 1 2 2.</_></rects>
      <tilted>0</tilted></_></features></cascade>
</opencv_storage>
